<?xml version="1.0" encoding="UTF-8"?>
<!-- This network was created in GeNIe Academic, which can be used for academic teaching and research purposes only -->
<smile version="1.0" id="Network23" numsamples="10000" discsamples="10000">
	<nodes>
		<cpt id="age_group">
			<state id="mlajsi" />
			<state id="srednji" />
			<state id="starejsi" />
			<probabilities>0.4180602006688963 0.4448160535117057 0.137123745819398</probabilities>
			<property id="DSL_OUTCOME_ORDER">1</property>
		</cpt>
		<cpt id="time_group">
			<state id="kratko" />
			<state id="srednje" />
			<state id="dolgo" />
			<probabilities>0.391304347826087 0.1872909698996655 0.4214046822742475</probabilities>
			<property id="DSL_OUTCOME_ORDER">1</property>
		</cpt>
		<cpt id="serum_creatinine_group">
			<state id="nizka" />
			<state id="srednja" />
			<state id="visoka" />
			<probabilities>0.2709030100334448 0.5050167224080268 0.2240802675585284</probabilities>
			<property id="DSL_OUTCOME_ORDER">1</property>
		</cpt>
		<cpt id="ejection_fraction">
			<state id="vr14" />
			<state id="vr15" />
			<state id="vr17" />
			<state id="vr20" />
			<state id="vr25" />
			<state id="vr30" />
			<state id="vr35" />
			<state id="vr38" />
			<state id="vr40" />
			<state id="vr45" />
			<state id="vr50" />
			<state id="vr55" />
			<state id="vr60" />
			<state id="vr62" />
			<state id="vr65" />
			<state id="vr70" />
			<state id="vr80" />
			<probabilities>0.003344481605351171 0.006688963210702341 0.006688963210702341 0.06020066889632107 0.1204013377926421 0.1137123745819398 0.1638795986622074 0.1337792642140468 0.1237458193979933 0.06688963210702341 0.07023411371237458 0.01003344481605351 0.1036789297658863 0.006688963210702341 0.003344481605351171 0.003344481605351171 0.003344481605351171</probabilities>
		</cpt>
		<cpt id="DEATH_EVENT" target="true">
			<state id="No" />
			<state id="Yes" />
			<parents>age_group time_group serum_creatinine_group ejection_fraction</parents>
			<probabilities>0.5 0.5 0.5 0.5 0.5 0.5 0.5 0.5 0.8333333333333333 0.1666666666666667 0.8333333333333333 0.1666666666666667 0.9166666666666666 0.08333333333333333 0.8333333333333333 0.1666666666666667 0.9166666666666666 0.08333333333333333 0.75 0.25 0.5 0.5 0.75 0.25 0.75 0.25 0.75 0.25 0.5 0.5 0.5 0.5 0.5 0.5 0.5 0.5 0.5 0.5 0.5 0.5 0.75 0.25 0.5 0.5 0.75 0.25 0.9166666666666666 0.08333333333333333 0.9375 0.0625 0.875 0.125 0.9 0.1 0.5 0.5 0.75 0.25 0.8333333333333333 0.1666666666666667 0.5 0.5 0.5 0.5 0.5 0.5 0.5 0.5 0.5 0.5 0.5 0.5 0.5 0.5 0.1666666666666667 0.8333333333333333 0.5 0.5 0.6666666666666666 0.3333333333333333 0.5 0.5 0.8333333333333333 0.1666666666666667 0.5 0.5 0.75 0.25 0.5 0.5 0.5 0.5 0.5 0.5 0.5 0.5 0.5 0.5 0.25 0.75 0.5 0.5 0.25 0.75 0.5 0.5 0.5 0.5 0.5 0.5 0.25 0.75 0.5 0.5 0.5 0.5 0.5 0.5 0.5 0.5 0.5 0.5 0.5 0.5 0.5 0.5 0.75 0.25 0.5 0.5 0.5 0.5 0.5 0.5 0.5 0.5 0.5 0.5 0.5 0.5 0.5 0.5 0.25 0.75 0.5 0.5 0.4 0.6000000000000001 0.25 0.75 0.1666666666666667 0.8333333333333333 0.5 0.5 0.5 0.5 0.5 0.5 0.5 0.5 0.5 0.5 0.5 0.5 0.5 0.5 0.5 0.5 0.5 0.5 0.5 0.5 0.5 0.5 0.5 0.5 0.25 0.75 0.5 0.5 0.5 0.5 0.5 0.5 0.1666666666666667 0.8333333333333333 0.5 0.5 0.5 0.5 0.5 0.5 0.25 0.75 0.5 0.5 0.5 0.5 0.5 0.5 0.5 0.5 0.5 0.5 0.5 0.5 0.5 0.5 0.5 0.5 0.75 0.25 0.5 0.5 0.9166666666666666 0.08333333333333333 0.8 0.2 0.75 0.25 0.9 0.1 0.8333333333333333 0.1666666666666667 0.75 0.25 0.5 0.5 0.875 0.125 0.5 0.5 0.5 0.5 0.5 0.5 0.5 0.5 0.5 0.5 0.25 0.75 0.5 0.5 0.25 0.75 0.6666666666666666 0.3333333333333333 0.5 0.5 0.875 0.125 0.5 0.5 0.875 0.125 0.75 0.25 0.8333333333333333 0.1666666666666667 0.5 0.5 0.8333333333333333 0.1666666666666667 0.5 0.5 0.5 0.5 0.5 0.5 0.75 0.25 0.5 0.5 0.5 0.5 0.25 0.75 0.5 0.5 0.75 0.25 0.5 0.5 0.75 0.25 0.5 0.5 0.25 0.75 0.5 0.5 0.5 0.5 0.5 0.5 0.5 0.5 0.5 0.5 0.5 0.5 0.5 0.5 0.5 0.5 0.5 0.5 0.5 0.5 0.5 0.5 0.5 0.5 0.5 0.5 0.75 0.25 0.8333333333333333 0.1666666666666667 0.5 0.5 0.8333333333333333 0.1666666666666667 0.75 0.25 0.75 0.25 0.5 0.5 0.75 0.25 0.5 0.5 0.5 0.5 0.5 0.5 0.5 0.5 0.5 0.5 0.5 0.5 0.75 0.25 0.5 0.5 0.3333333333333333 0.6666666666666666 0.8 0.2 0.9444444444444444 0.05555555555555555 0.9285714285714285 0.07142857142857142 0.9 0.1 0.5 0.5 0.75 0.25 0.5 0.5 0.8333333333333333 0.1666666666666667 0.5 0.5 0.5 0.5 0.5 0.5 0.5 0.5 0.5 0.5 0.5 0.5 0.5 0.5 0.25 0.75 0.75 0.25 0.25 0.75 0.8333333333333333 0.1666666666666667 0.75 0.25 0.75 0.25 0.5 0.5 0.5 0.5 0.5 0.5 0.5 0.5 0.5 0.5 0.5 0.5 0.5 0.5 0.5 0.5 0.5 0.5 0.5 0.5 0.5 0.5 0.5 0.5 0.25 0.75 0.5 0.5 0.25 0.75 0.25 0.75 0.5 0.5 0.5 0.5 0.5 0.5 0.5 0.5 0.5 0.5 0.5 0.5 0.5 0.5 0.5 0.5 0.5 0.5 0.5 0.5 0.5 0.5 0.5 0.5 0.25 0.75 0.3333333333333333 0.6666666666666666 0.5 0.5 0.5 0.5 0.5 0.5 0.5 0.5 0.1666666666666667 0.8333333333333333 0.3333333333333333 0.6666666666666666 0.5 0.5 0.1666666666666667 0.8333333333333333 0.5 0.5 0.25 0.75 0.5 0.5 0.5 0.5 0.5 0.5 0.5 0.5 0.5 0.5 0.1666666666666667 0.8333333333333333 0.5 0.5 0.5 0.5 0.25 0.75 0.1666666666666667 0.8333333333333333 0.5 0.5 0.5 0.5 0.5 0.5 0.5 0.5 0.5 0.5 0.25 0.75 0.5 0.5 0.5 0.5 0.5 0.5 0.5 0.5 0.5 0.5 0.5 0.5 0.25 0.75 0.5 0.5 0.8333333333333333 0.1666666666666667 0.9 0.1 0.75 0.25 0.875 0.125 0.75 0.25 0.5 0.5 0.5 0.5 0.9285714285714285 0.07142857142857142 0.5 0.5 0.5 0.5 0.5 0.5 0.5 0.5 0.5 0.5 0.5 0.5 0.5 0.5 0.1666666666666667 0.8333333333333333 0.4285714285714285 0.5714285714285714 0.5 0.5 0.75 0.25 0.8333333333333333 0.1666666666666667 0.9166666666666666 0.08333333333333333 0.8333333333333333 0.1666666666666667 0.8333333333333333 0.1666666666666667 0.5 0.5 0.875 0.125 0.5 0.5 0.5 0.5 0.5 0.5 0.5 0.5 0.5 0.5 0.5 0.5 0.5 0.5 0.1666666666666667 0.8333333333333333 0.3333333333333333 0.6666666666666666 0.25 0.75 0.75 0.25 0.5 0.5 0.5 0.5 0.5 0.5 0.75 0.25 0.5 0.5 0.5 0.5 0.5 0.5 0.5 0.5 0.5 0.5 0.5 0.5 0.5 0.5 0.5 0.5 0.5 0.5 0.5 0.5 0.5 0.5 0.5 0.5 0.5 0.5 0.8333333333333333 0.1666666666666667 0.75 0.25 0.5 0.5 0.5 0.5 0.5 0.5 0.5 0.5 0.5 0.5 0.5 0.5 0.5 0.5 0.5 0.5 0.5 0.5 0.5 0.5 0.5 0.5 0.5 0.5 0.5 0.5 0.5 0.5 0.5 0.5 0.5 0.5 0.5 0.5 0.5 0.5 0.875 0.125 0.5 0.5 0.75 0.25 0.5 0.5 0.5 0.5 0.5 0.5 0.5 0.5 0.5 0.5 0.5 0.5 0.5 0.5 0.5 0.5 0.5 0.5 0.5 0.5 0.75 0.25 0.25 0.75 0.5 0.5 0.25 0.75 0.5 0.5 0.5 0.5 0.5 0.5 0.5 0.5 0.5 0.5 0.5 0.5 0.5 0.5 0.5 0.5 0.5 0.5 0.5 0.5 0.5 0.5 0.5 0.5 0.5 0.5 0.5 0.5 0.25 0.75 0.5 0.5 0.5 0.5 0.5 0.5 0.5 0.5 0.5 0.5 0.5 0.5 0.5 0.5 0.5 0.5 0.5 0.5 0.5 0.5 0.25 0.75 0.5 0.5 0.5 0.5 0.5 0.5 0.25 0.75 0.5 0.5 0.5 0.5 0.25 0.75 0.5 0.5 0.125 0.875 0.5 0.5 0.5 0.5 0.5 0.5 0.5 0.5 0.5 0.5 0.5 0.5 0.5 0.5 0.5 0.5 0.5 0.5 0.1666666666666667 0.8333333333333333 0.5 0.5 0.1666666666666667 0.8333333333333333 0.25 0.75 0.125 0.875 0.25 0.75 0.25 0.75 0.5 0.5 0.5 0.5 0.5 0.5 0.5 0.5 0.5 0.5 0.5 0.5 0.5 0.5 0.5 0.5 0.5 0.5 0.5 0.5 0.5 0.5 0.5 0.5 0.5 0.5 0.5 0.5 0.75 0.25 0.5 0.5 0.5 0.5 0.5 0.5 0.5 0.5 0.5 0.5 0.5 0.5 0.5 0.5 0.5 0.5 0.5 0.5 0.5 0.5 0.5 0.5 0.5 0.5 0.5 0.5 0.75 0.25 0.5 0.5 0.5 0.5 0.1666666666666667 0.8333333333333333 0.75 0.25 0.75 0.25 0.75 0.25 0.5 0.5 0.25 0.75 0.5 0.5 0.5 0.5 0.5 0.5 0.5 0.5 0.5 0.5 0.5 0.5 0.5 0.5 0.5 0.5 0.5 0.5 0.25 0.75 0.5 0.5 0.25 0.75 0.5 0.5 0.5 0.5 0.75 0.25 0.5 0.5 0.75 0.25 0.5 0.5 0.5 0.5 0.5 0.5 0.5 0.5</probabilities>
		</cpt>
	</nodes>
	<extensions>
		<genie version="1.0" app="GeNIe 5.0.5310.0 ACADEMIC" name="Network23">
			<node id="age_group">
				<name>age_group</name>
				<interior color="e5f6f7" />
				<outline color="000080" />
				<font color="000000" name="Arial" size="8" />
				<position>538 201 604 242</position>
			</node>
			<node id="time_group">
				<name>time_group</name>
				<interior color="e5f6f7" />
				<outline color="000080" />
				<font color="000000" name="Arial" size="8" />
				<position>615 121 681 162</position>
			</node>
			<node id="serum_creatinine_group">
				<name>serum_creatinine_group</name>
				<interior color="e5f6f7" />
				<outline color="000080" />
				<font color="000000" name="Arial" size="8" />
				<position>740 98 871 179</position>
			</node>
			<node id="DEATH_EVENT">
				<name>DEATH_EVENT</name>
				<interior color="e5f6f7" />
				<outline color="000080" />
				<font color="000000" name="Arial" size="8" />
				<position>701 286 869 374</position>
			</node>
			<node id="ejection_fraction">
				<name>ejection_fraction</name>
				<interior color="e5f6f7" />
				<outline color="000080" />
				<font color="000000" name="Arial" size="8" />
				<position>924 117 1015 173</position>
			</node>
		</genie>
	</extensions>
</smile>
